      3.0840490311
      6.3399012547
      1.6516269168
      3.8218688037
     -1.2299077764
      6.6072990257
    -25.6593225127
    -11.2144887703
     -5.4389571544
      8.8159624399
     -7.5082598021
    -16.7502852869
     -1.0543669793
     13.6412960213
      4.7851394312
      6.2121827408
     14.3719148766
    -10.1303843943
      9.9831604971
    -23.0221113637
      5.7099176258
      0.3668507483
     -5.6092710837
     -9.2585116941
     -2.7834115130
      1.2595726127
     11.7881094784
     10.0324206943
     -1.1082414955
      1.8595549311
     -3.3239017875
     12.4701093220
      1.0874681266
    -15.7351274727
     -5.8158310584
     -4.1941783597
     -9.0953157492
     10.9710935366
     -3.0520536049
     11.3504900094
     -5.2433569205
     -2.3876729145
      3.2447684081
      5.8248599000
      1.2501288431
     -9.8699459634
     11.5150619462
      9.6606566240
      5.4002062255
     -0.6973649252
      5.5547105408
     10.4928260489
      1.6921269137
    -11.2461458695
     -8.5574338734
     -9.8006819657
     -3.9462654941
      0.1439149592
     -0.9518514844
     17.8949148283
      0.4551143762
     -9.2256442538
     -5.6815824117
      0.9735637936
      6.1886587999
     -5.6264845115
     -3.6157666788
     -4.1012476678
     10.5986892084
     -7.5233425193
      1.7048509066
     -3.2378378769
      6.2364308027
     16.5531908991
      8.8816698598
    -10.0284526172
     10.2646657282
     -8.1940409632
      6.3640802238
     -6.0524269716
      3.7227402402
      6.6854224399
      2.0538428485
     -4.3422656716
      2.4203897555
      9.7096080187
     -0.7775953720
    -10.6474742226
     -9.8981232190
      4.4953674600
     -1.4472268153
     -4.9211982069
    -18.2875865754
      2.1837554099
     -4.8352392575
     11.1219281230
     -0.9930311284
     11.4764953038
     -1.1052254359
     -5.4261434040
     -9.0560664279
      3.1587091898
      8.6684235862
      1.0287004290
     -2.8329872841
      4.3959192060
     -0.9135011099
     22.5990763308
     -3.1415936779
    -22.6755578852
      5.9194605094
     -0.8873172990
     22.9182995583
    -16.0830878699
      5.7832048658
     17.1156360062
    -18.0537496412
    -15.7861268624
    -12.9123228847
     -1.1507044041
      7.5132521596
     -3.3933738466
     -4.8320036206
      0.1778980559
     -0.8510629288
     -5.9521013011
      3.3562847333
    -18.9443517256
      1.8476705548
     21.0149594564
     -0.2130085083
      1.9810486757
    -12.4013951295
     11.1009668707
     -5.0825858830
    -13.3633964324
     13.0563917551
     11.5175212738
      8.1474301443
      2.7051542062
     -0.8671022356
      0.9270917921
      2.8106626154
      1.0454989384
     -2.0647280764
      1.4295141407
      0.7449248603
      0.4064788833
     -3.2985858121
     -0.6332977871
      0.5143305711
     -1.8055102611
      0.3286319038
      0.1714915608
      2.1499168488
      5.3251766834
     -3.8514951968
     -0.9314680586
     -4.4892711895
     -3.1499356640
     -1.5037799748
     -0.7737133551
      2.0197559931
      0.1657322576
      1.0417871676
      1.2755833431
      2.0476404467
     -0.9616300328
     -1.3865018893
     -3.3139796156
      2.0182013631
     -1.7291659180
     -1.4441624535
      2.1560714720
      1.3101648278
      4.3398435417
     -2.1589113724
      0.4891881170
     -4.3344407104
     -1.1087981171
     -1.6797777041
     -1.4820226322
      0.5070396355
     -0.3891012452
      1.5373883632
     -0.1965502992
      3.5405758897
      0.2579291998
      0.5283960790
     -2.8228638421
      2.2811985983
      0.3201618880
     -0.7044187086
      0.4933651908
      0.1495363536
      1.0936407282
     -1.6544407794
      0.9460647474
     -2.9022101352
      1.8184162853
     -0.5271646448
     -0.0126563844
     -0.3753054226
      0.3572605669
      0.3890204386
     -0.6631483832
      2.0204840525
      0.4532831976
      0.7576257009
     -1.4701752406
      0.9951295113
      1.1455746751
      0.1511252370
     -0.8748914401
     -0.1140012255
     -0.8402947598
     -0.9740449091
      0.3015723881
     -0.8026651327
      1.9079716251
     -2.3166177959
      2.2403653796
      0.8060648730
      3.5169477112
     -2.4811861104
      3.0524315443
      0.3510234138
     -0.8054305527
     -1.0519070556
     -1.4328921112
      2.6144457978
     -0.0435918841
     -0.0396790929
     -1.5596473230
      6.6385996111
      5.0947280239
      2.8117180696
     -0.8249662643
     -1.0650438384
     -1.1357720426
     -0.8260112372
      0.1978788332
      4.3993102191
     -0.3468934904
      0.9389478218
     -1.6846360272
     -7.1577689215
      1.1697802614
     -3.2602187077
     -4.0307533224
      2.7488513912
     -1.2642329218
      0.2988600055
      0.3042094985
      5.8791130920
      4.5220504894
      2.7751879387
     -1.7370434469
      3.2372523001
     -8.1197792521
      1.8193913958
     -2.2107355022
     -4.1396860637
      1.6937005006
     -1.5864035327
      2.9834996197
     13.5369165587
     -2.8350660082
      6.6872279353
      2.3679675908
     -0.9846173626
      2.2464299640
     -3.5742960272
     -1.9374005562
     -1.5758303741
     -5.4020060328
     -5.8050216653
      3.4197100056
     -4.8971454195
     12.8646860621
     -0.0824306026
     -1.4015727047
      2.7331657772
     -2.4770004960
      1.7419967261
     -2.1445297702
     -3.8932608269
     -0.1748764886
      0.8686729591
     -2.3467906813
     -0.0320253460
     -0.5320904242
     -2.2032640176
     -0.0087306568
      3.8360829033
      1.0081195555
     -0.9389999839
     -0.0211453999
      3.8307017516
     -4.5585574741
     -4.0764771242
      2.6696773855
      1.9505329635
     -9.4917892132
      7.2459252254
     -3.5865178409
     -7.3905851337
      3.3053085136
     -1.3562417949
     -2.5846762887
     -2.4850465151
     -2.2117652618
      3.8233578836
     -0.9212698986
     -5.7846020532
      7.7183936567
      5.5442399310
      0.2777750515
      2.7919152526
     -7.6871130410
      3.6704438136
     -6.5574943946
     -0.4278474099
     -0.8638672249
      1.1108093430
     -0.7639427131
     15.2165631383
     -4.4890184082
      6.4640905356
      3.5278988540
     -1.5118532968
      4.6938996675
    -11.1978924045
      0.7474559005
     -2.2376288632
     -9.1586704276
     -9.6619997274
      4.9413021174
      1.7025789452
     11.9650777912
      2.5433485407
     -1.1528712354
      0.3403329080
      6.2640599159
     -7.2904033699
      2.4204195583
     -3.5108956005
     -2.8178858202
     -1.3370968231
      4.3302499153
      2.2369657305
      0.1025865757
     -1.8010222673
      3.0174496901
      6.1887793741
     -3.8159018885
     -0.6668048698
     -1.8664383832
     -0.3414446826
     -1.7189247166
     -3.8621829958
     -0.3517418495
     -0.8656966971
      7.4082616978
     -6.1172020512
      4.8410269619
     -4.7187378141
      5.4222746249
     -6.8072410917
     -8.6317626011
      8.4941869363
     -0.7601661424
      6.8092044262
      2.4464107825
      4.9777441025
      4.9418185982
     10.1131611639
     -0.8513364086
     -2.3075562414
     -1.2836751869
      0.2405161920
      0.4480684818
     -0.4567038347
      0.0123921025
      4.1506969149
     -0.7528059826
      0.4138107586
      0.3680838703
      0.5913224809
     -3.4079324643
     -1.3981846241
      0.1271067705
     -1.8131425801
     -0.2357547786
     -1.4775063715
      0.8946873891
      1.9112362628
      0.1828182888
     -0.6166567208
      0.3531293952
      5.2011219940
      5.3834156249
      0.0015413003
     -0.8533538911
      2.7492958731
     -5.7295857076
    -10.8820123740
     -3.4607294255
      3.5806412844
      6.8098240212
    -10.8098418726
     -2.9855155199
     -3.6502829525
     -1.8563949757
      0.0623148592
     -1.6996259831
     -4.6455103894
     -4.4666774112
     -3.9309105585
     -5.6647074964
     -5.5138638009
     -3.4884125339
     -0.2565585550
     -4.4044934094
     -6.5919606400
      2.2292394731
     16.0116451047
      1.8541776022
     -1.1226489780
      7.7956002067
      1.6941819746
      2.4391239946
     13.7242918692
     -2.5349712124
     -9.3056692086
      1.9845506803
     -1.5446061532
      4.7749940863
      5.8141692846
      6.7292854879
      2.8446612547
      1.6192245735
     -0.0348529505
      4.5121994654
      8.9976697037
      0.6013708898
     -9.8091854026
     -0.7192155940
     -0.4091680007
    -14.4979851831
      6.0526830573
     -0.9403403839
    -13.9488755091
      2.4708051207
      8.5385437931
     -2.4712094633
      2.4563202445
     -2.6235377207
     -3.2442964187
     -3.3241269786
     -8.3561446516
      4.3366486416
    -19.4191188730
     -1.1028475051
     -1.9856388219
      2.1760184332
    -20.9142199939
    -16.1763824622
     -6.6233400299
     -7.4430934895
    -17.8481117036
      0.1537740059
     31.3072387396
      6.5968205157
    -12.3183005907
    -11.8327337506
      8.3421658549
      4.3954532537
      3.9705615340
     -4.0759645480
      5.6057427593
     10.8461632266
      3.6765755349
     -5.5697169896
      9.0217379477
      4.4721373838
     17.0693518049
      0.3975441491
     10.9123187620
     15.9958989453
      8.2644934055
     -2.3146281215
     -8.2738030418
     -5.1585895943
    -12.9934937648
     11.7443812158
     -1.9183643025
     -2.9982272446
     -5.1992341355
      9.2801290589
      9.4531702023
     -3.8136354086
     18.8343660684
     16.2768898261
     -6.7096541762
     -7.1519141903
     -9.6600045780
      7.7598487579
     -1.9349480462
     17.0091286098
     16.2350696227
     -5.2546690870
     -9.7198544986
      4.1667605551
     12.8585812995
      7.8527155576
      0.6657718972
     -8.6950073730
     -2.1864088038
     -2.2399206082
     -7.9305637517
     -6.8950406023
     -7.1389568813
    -11.0466248434
      0.7551509969
     -0.6326044012
     10.9647125634
      7.4721070555
     -2.5660084021
    -25.0449839588
     -6.5007190073
      5.2557960420
     -7.7362280532
     -5.5668535921
      3.8222476934
    -11.8170094763
     -5.2546694605
      6.1783665140
      1.3547633754
     -2.2762123730
      0.8726456843
      0.0897754585
     -1.0627783674
      0.4146227477
     -0.0717527820
     -0.3365488712
     -1.9267316135
      0.5931575777
      0.6453287426
      0.9366997315
     -0.6581408285
      2.0494186245
      0.4597903131
     -2.1467783251
      0.0261613876
     -1.7577192602
     -0.1948534373
     -0.2511237601
      2.3892197151
      0.4365945625
     -1.6046445166
      1.3616997484
     -0.0281017287
      4.0384740582
      1.5125699363
     -0.2444110831
     -1.2062778668
      3.0631019970
      0.2122500362
     -0.0990691722
      3.3048717946
     -0.2650618096
     -0.0873714985
     -0.2176041116
      0.2968408071
      3.0447127437
     -0.9779706906
      0.4447679552
     -1.5265229983
     -1.2195346464
     -2.0006649757
     -0.9259179745
      0.9236068520
     -0.6373908452
      0.4399520803
     -0.7517196318
      0.1444549277
     -1.8425121174
     -0.9665140382
      0.9834852537
     -1.1360086720
      0.1747514899
     -0.1573001301
      0.5340464494
      0.4466207075
     -1.7828367508
      0.8737044379
     -0.8519564754
      0.9554001782
      0.8582310883
      3.7124300040
     -0.4386329126
      1.4227265260
      0.0138633751
     -0.2436763575
     -0.6614547072
     -0.7495368331
     -2.9690904382
      0.4796869705
      1.3997162364
     -2.0736683100
     -1.0704763493
      0.5670489068
      0.2935080860
      0.0872616386
     -2.5009928687
      1.1634699323
      0.0829224774
      0.1977388535
      1.5419686563
     -1.8979985449
     -2.3551205632
      2.0055662379
     -1.0478611303
     -3.0293734806
      0.1317299385
     -3.4530218954
      1.1719410340
      1.3723313563
      0.0695096872
     -7.3390367762
      0.1400243912
     -1.2330328359
      0.2786541782
     -4.1271920465
      4.5342032213
      0.7594979355
     -3.1743334573
      1.2880491242
      3.8968474664
      2.0584963594
     -1.0296658648
      4.1538143398
      1.9832327445
     -6.1667254577
     -1.7844183648
     -0.5153895795
      3.5799572759
      1.6010778015
     -1.1404686898
    -10.5388396277
      5.6468472212
     -0.4794875782
     -0.5073614354
     -2.4130979335
      5.6148788789
      2.1477750789
     -3.8109814118
     -2.2387335941
      3.8311446758
     -4.5037870074
     -0.0554648617
     -0.7626983712
      0.0966832178
      0.0515408879
      0.3871215732
     -2.3184891496
     -1.7938623672
     -1.7892480206
      0.8861375247
     -0.1166314525
     -1.6501245381
     -1.7427040958
      0.3968078956
      1.2513070963
      0.6355240370
     -1.6402434531
      0.2543615936
     -0.2992209802
     -0.6174599518
      4.3941238279
      2.0275062993
     -0.0478634747
     -0.7733014325
     -5.5337676907
      1.3112137898
     -5.4683113695
     -2.6630298989
      0.4935907683
     -0.8096025987
      0.5469933594
     -6.6861763605
     -0.9148434422
      0.9090864444
     -1.7007177174
      2.9733077546
     -1.2070687494
      2.0694729818
     -2.7188760075
     -2.8889919011
     -2.7932989142
     -1.6606570833
     -1.1901891358
      1.7825408190
     -0.1480098718
     -0.1602946551
     -0.9129721575
     -3.1657142000
     -0.7473362495
      1.9808103745
      0.0468907393
      1.2424412766
      0.6397418703
      0.4542526468
      0.1592736255
      0.0986973378
      0.2935166191
     -0.9027612355
      1.4916660978
      1.4177150005
      2.9781576175
     -0.0340472792
      1.7942471885
      2.2614378949
     -2.1967406929
     -0.0345417470
     -0.7141594880
      1.0904665159
      1.2866610690
      0.6080881816
     -0.5971980452
      2.3715226295
      0.0945199131
     -0.3251841881
     -0.3898695636
      1.2320999728
     -0.6248343127
     -0.6045550725
     -1.3527122940
      1.8702502329
     -3.9811299382
     -1.1500687304
      0.4048340909
      1.8540475076
     -0.5891278387
      1.0063493349
     -3.7408227781
     -2.4968241702
     -1.4488132741
      1.4596419350
      2.8014555074
      3.5278209702
      0.3825241412
     -0.6093025661
     -0.3374860915
      0.4419341295
     -1.5768513109
      1.6366656680
      1.8268230962
      1.8944829505
     -5.8107105329
     -1.4151575488
      1.4502097585
     -2.4506923718
      1.5343937468
      0.0741231693
     -1.5919272769
     -6.6825979137
      0.5932862376
      2.0771030899
     -1.5418286669
      2.0482346310
     -0.8452512333
     -0.3849490508
     -1.1983956740
     -1.0785598082
      0.3200148082
      0.7262762799
      3.2809175928
      0.5489478737
     -3.7609645333
      1.1693069883
     -0.9907435129
     -0.0643587491
      0.6894753753
     -2.9639984232
     -1.4618784375
      2.0807042866
     -1.3660409697
     -0.9212929813
     -1.3885545881
     -3.0560340967
     -2.4468922540
      1.6429430141
      0.1141827209
     -2.0337985978
      1.7794886346
      2.0133911497
     -0.7101361416
     -1.5657044183
     -1.2984663496
     -0.3660693913
      1.4180673037
     -0.8608245737
     -0.5201148285
     -0.8685295754
     -0.4206506769
      1.0963975172
      1.9132656644
     -1.2596670068
     -3.2098802794
      3.1743254878
     -1.5956769491
     -0.9476342060
     -0.7633408926
      1.7248294485
      0.9077252671
     -1.7859676305
      0.8392563187
      1.7771394376
     -0.3601739361
     -0.8414080082
      1.1565476820
     -1.7839866745
     -0.5648918346
     -0.4952967980
      0.3180534162
      0.9248953376
     -0.7065929593
     -0.1094903232
      0.5944994917
      1.7582922135
      0.5427826571
      0.6573860570
      0.3212979730
      1.8413509091
      0.9741673071
     -0.2415216895
      0.0424852914
     -0.1732474706
      2.4384367385
     -1.0495193954
     -0.8217610802
      2.0939318017
      0.4234839467
      1.1860933808
     -1.7500649341
     -0.2173572763
      1.0314981906
     -0.5051689777
      2.7356452721
      2.2456781946
      0.5081111929
      0.3142942366
     -0.7948180577
      1.0906436667
      0.1706091458
     -0.3624495496
      0.6686300131
      0.7823213837
     -1.9413088406
     -0.9144135048
      0.4608106613
     -0.1012433240
     -0.1321235640
      0.5369064175
     -0.2828639151
      0.7178873695
      1.4255285863
      1.5121167229
      2.2672455800
      4.0368409885
      0.6912016833
     -0.8190597756
     -2.7454875670
      1.6177996919
      0.9217111785
     -1.1116199740
      1.6836603266
      2.0128895442
      3.4463926949
      0.3265500044
      0.6917205688
     -2.3833767562
      0.2392773685
     -0.2379177966
      3.1166829138
     -0.5662307494
      0.9647942780
      0.3336647816
     -0.5714849180
      0.2700480793
      1.8291059890
     -0.2918189126
     -0.3849252051
      0.6185707589
      2.2660219065
      0.3715073389
      0.2034938114
     -0.4134780171
     -4.5009810418
     -1.1441473571
     -0.1533643205
      1.2238793200
     -0.0424137377
     -0.5116880950
     -1.2215760211
      2.8676399369
     -1.3383663027
     -1.4865394648
      0.0229499312
      0.1211878249
     -1.3680944019
      0.7008284155
      0.8986274501
     -0.0821379537
     -3.8428697230
     -1.6527198784
      1.0321842728
      2.4540357187
     -4.1366722291
     -1.3664582250
     -1.4444070158
     -1.9549608632
     -1.7093246990
      2.9540978273
     -0.1989149694
     -2.0738422213
      2.2853411812
     -1.4508751189
      4.8578853253
      3.9594314672
     -0.4719024676
     -0.5835024166
     -4.1482667440
      4.1673310026
      5.5964084449
      2.4280268386
      1.7196920639
      0.8430994123
      5.3568072607
      1.3295001001
     -0.1074987062
     -1.6003574966
      0.7094071837
      0.7191892811
      3.3144035512
     -0.0007653176
     -0.4248978136
      1.9343556518
     -0.9507121082
      0.4506198644
      3.2663527187
     -0.8211333178
      0.8214013378
      2.5662107858
      5.0253967213
      1.3755646862
     -1.8420552966
     -1.9666535133
      9.9080113601
      3.6404983787
      0.0438709636
      0.3816362307
      0.7986447489
      0.1372711420
     -2.7823852372
     -1.6070206829
     -3.8474677697
      1.8732606018
     14.9960693514
     -6.8438271783
      3.6184662718
     -0.7566298732
      5.9108532343
     -4.9915799696
     -4.8155416202
      2.4933322894
     -1.2245659063
     -4.0336385935
      0.2811840981
     -0.6686035732
      0.7971665959
     -0.9253059953
      0.5563651048
     -0.9137091507
     -0.4682653464
     -0.7553774750
     -0.8119593773
     -1.0884641298
     -0.3661214349
     -0.1524039630
      0.4747849658
     -0.7013902952
     -0.4790566741
     -0.1698258560
     -0.3278444284
      0.2170740149
     -0.7132117206
      0.2160280451
     -0.0527209676
